<?xml version="1.0" encoding="UTF-8"?>
<!-- This network was created in GeNIe Academic, which can be used for academic teaching and research purposes only -->
<smile version="1.0" id="Network1" numsamples="10000" discsamples="10000">
	<nodes>
		<cpt id="Ground_Truth">
			<state id="Cat0" />
			<state id="Cat1" />
			<state id="Cat2" />
			<state id="Cat3" />
			<state id="Cat4" />
			<probabilities>0.86335 0.00449 0.11267 0.00153 0.01796000000000005</probabilities>
		</cpt>
		<cpt id="Classifier_Output">
			<state id="R0" />
			<state id="R1" />
			<state id="R2" />
			<state id="R3" />
			<state id="R4" />
			<state id="R0_1" />
			<state id="R0_2" />
			<state id="R0_3" />
			<state id="R0_4" />
			<state id="R1_2" />
			<state id="R1_3" />
			<state id="R1_4" />
			<state id="R2_3" />
			<state id="R2_4" />
			<state id="R3_4" />
			<state id="R0_1_3" />
			<state id="R0_2_3" />
			<state id="R1_2_3" />
			<state id="R1_2_4" />
			<parents>Ground_Truth</parents>
			<probabilities>0.946331747261259 0.0340083360997381 0.0115082438862454 0.00254509239791966 0.000663937147283391 0.00383608129541515 0.000516395558998193 0.000331968573641695 0.000110656191213898 3.68853970712995e-05 0 3.68853970712995e-05 0 3.68853970712995e-05 0 0 3.68853970712995e-05 0 0 0.0425531914893617 0.907801418439716 0.0354609929078014 0.0141843971631206 0 0 0 0 0 0 0 0 0 0 0 0 0 0 0 0.00678349349915206 0.00791407574901074 0.952232899943471 0.0310910118711136 0.00113058224985868 0 0 0 0 0.000565291124929339 0 0 0.000282645562464669 0 0 0 0 0 0 0.0208333333333333 0 0.125 0.854166666666667 0 0 0 0 0 0 0 0 0 0 0 0 0 0 0 0.024822695035461 0.0230496453900709 0.0106382978723404 0.00177304964539007 0.927304964539007 0.00177304964539007 0 0 0.00531914893617021 0.00177304964539007 0 0.00177304964539007 0 0.00177304964539007 0 0 0 0 0</probabilities>
		</cpt>
		<cpt id="RS1_1">
			<state id="Safe" />
			<state id="Unsafe" />
			<state id="Not_Applicable" />
			<parents>Ground_Truth Classifier_Output</parents>
			<probabilities>1 0 0 0 1 0 0 1 0 0 1 0 0 1 0 0.5 0.5 0 0.5 0.5 0 0.5 0.5 0 0.5 0.5 0 0 1 0 0 1 0 0 1 0 0 1 0 0 1 0 0 1 0 0.333333333333333 0.666666666666667 0 0.333333333333333 0.666666666666667 0 0 1 0 0 1 0 0 0 1 0 0 1 0 0 1 0 0 1 0 0 1 0 0 1 0 0 1 0 0 1 0 0 1 0 0 1 0 0 1 0 0 1 0 0 1 0 0 1 0 0 1 0 0 1 0 0 1 0 0 1 0 0 1 0 0 1 0 0 1 0 0 1 0 0 1 0 0 1 0 0 1 0 0 1 0 0 1 0 0 1 0 0 1 0 0 1 0 0 1 0 0 1 0 0 1 0 0 1 0 0 1 0 0 1 0 0 1 0 0 1 0 0 1 0 0 1 0 0 1 0 0 1 0 0 1 0 0 1 0 0 1 0 0 1 0 0 1 0 0 1 0 0 1 0 0 1 0 0 1 0 0 1 0 0 1 0 0 1 0 0 1 0 0 1 0 0 1 0 0 1 0 0 1 0 0 1 0 0 1 0 0 1 0 0 1 0 0 1 0 0 1 0 0 1 0 0 1 0 0 1 0 0 1 0 0 1 0 0 1 0 0 1 0 0 1 0 0 1 0 0 1 0 0 1</probabilities>
		</cpt>
		<cpt id="RS1_2">
			<state id="Safe" />
			<state id="Unsafe" />
			<state id="Not_Applicable" />
			<parents>Ground_Truth Classifier_Output</parents>
			<probabilities>0 0 1 0 0 1 0 0 1 0 0 1 0 0 1 0 0 1 0 0 1 0 0 1 0 0 1 0 0 1 0 0 1 0 0 1 0 0 1 0 0 1 0 0 1 0 0 1 0 0 1 0 0 1 0 0 1 0 0 1 1 0 0 0 1 0 0 1 0 0 1 0 0.5 0 0.5 0 0.5 0.5 0 0.5 0.5 0 0.5 0.5 0.5 0.5 0 0.5 0.5 0 0.5 0.5 0 0 1 0 0 1 0 0 1 0 0.333333333333333 0.333333333333333 0.333333333333333 0 0.666666666666667 0.333333333333333 0.333333333333333 0.666666666666667 0 0.333333333333333 0.666666666666667 0 0 0 1 0 1 0 1 0 0 0 1 0 0 1 0 0 0.5 0.5 0.5 0 0.5 0 0.5 0.5 0 0.5 0.5 0.5 0.5 0 0 1 0 0 1 0 0.5 0.5 0 0.5 0.5 0 0 1 0 0 0.666666666666667 0.333333333333333 0.333333333333333 0.333333333333333 0.333333333333333 0.333333333333333 0.666666666666667 0 0.333333333333333 0.666666666666667 0 0 0 1 0 1 0 0 1 0 1 0 0 0 1 0 0 0.5 0.5 0 0.5 0.5 0.5 0 0.5 0 0.5 0.5 0 1 0 0.5 0.5 0 0 1 0 0.5 0.5 0 0.5 0.5 0 0 1 0 0.333333333333333 0.333333333333333 0.333333333333333 0.333333333333333 0.333333333333333 0.333333333333333 0.333333333333333 0.666666666666667 0 0 1 0 0 0 1 0 1 0 0 1 0 0 1 0 1 0 0 0 0.5 0.5 0 0.5 0.5 0 0.5 0.5 0.5 0 0.5 0 1 0 0 1 0 0.5 0.5 0 0 1 0 0.5 0.5 0 0.5 0.5 0 0 0.666666666666667 0.333333333333333 0 0.666666666666667 0.333333333333333 0 1 0 0.333333333333333 0.666666666666667 0</probabilities>
		</cpt>
		<cpt id="RS1_3">
			<state id="Safe" />
			<state id="Unsafe" />
			<state id="Not_Applicable" />
			<parents>Ground_Truth Classifier_Output</parents>
			<probabilities>0 0 1 0 0 1 0 0 1 0 0 1 0 0 1 0 0 1 0 0 1 0 0 1 0 0 1 0 0 1 0 0 1 0 0 1 0 0 1 0 0 1 0 0 1 0 0 1 0 0 1 0 0 1 0 0 1 0 1 0 1 0 0 0 0 1 0 0 1 0 0 1 0.5 0.5 0 0 0.5 0.5 0 0.5 0.5 0 0.5 0.5 0.5 0 0.5 0.5 0 0.5 0.5 0 0.5 0 0 1 0 0 1 0 0 1 0.333333333333333 0.333333333333333 0.333333333333333 0 0.333333333333333 0.666666666666667 0.333333333333333 0 0.666666666666667 0.333333333333333 0 0.666666666666667 0 1 0 0 0 1 1 0 0 0 0 1 0 0 1 0 0.5 0.5 0.5 0.5 0 0 0.5 0.5 0 0.5 0.5 0.5 0 0.5 0 0 1 0 0 1 0.5 0 0.5 0.5 0 0.5 0 0 1 0 0.333333333333333 0.666666666666667 0.333333333333333 0.333333333333333 0.333333333333333 0.333333333333333 0 0.666666666666667 0.333333333333333 0 0.666666666666667 0 1 0 0 0 1 1 0 0 0 0 1 0 0 1 0 0.5 0.5 0 0.5 0.5 0.5 0.5 0 0 0.5 0.5 0 0 1 0.5 0 0.5 0 0 1 0.5 0 0.5 0 0 1 0.5 0 0.5 0.333333333333333 0.333333333333333 0.333333333333333 0.333333333333333 0.333333333333333 0.333333333333333 0.333333333333333 0 0.666666666666667 0 0 1 0 1 0 0 0 1 0 0 1 0 0 1 1 0 0 0 0.5 0.5 0 0.5 0.5 0 0.5 0.5 0.5 0.5 0 0 0 1 0 0 1 0.5 0 0.5 0 0 1 0.5 0 0.5 0.5 0 0.5 0 0.333333333333333 0.666666666666667 0 0.333333333333333 0.666666666666667 0 0 1 0.333333333333333 0 0.666666666666667</probabilities>
		</cpt>
		<cpt id="Safety">
			<state id="Safe" />
			<state id="Unsafe" />
			<parents>Ground_Truth Classifier_Output</parents>
			<probabilities>1 0 0 1 0 1 0 1 0 1 0.5 0.5 0.5 0.5 0.5 0.5 0.5 0.5 0 1 0 1 0 1 0 1 0 1 0 1 0.333333333333333 0.666666666666667 0.333333333333333 0.666666666666667 0 1 0 1 0 1 1 0 0 1 0 1 0 1 0.5 0.5 0 1 0 1 0 1 0.5 0.5 0.5 0.5 0.5 0.5 0 1 0 1 0 1 0.333333333333333 0.666666666666667 0 1 0.333333333333333 0.666666666666667 0.333333333333333 0.666666666666667 0 1 0 1 1 0 0 1 0 1 0 1 0.5 0.5 0 1 0 1 0.5 0.5 0 1 0 1 0.5 0.5 0.5 0.5 0 1 0 1 0.333333333333333 0.666666666666667 0.333333333333333 0.666666666666667 0.333333333333333 0.666666666666667 0 1 0 1 0 1 1 0 0 1 0 1 0 1 0.5 0.5 0 1 0 1 0.5 0.5 0 1 0.5 0.5 0 1 0.5 0.5 0.333333333333333 0.666666666666667 0.333333333333333 0.666666666666667 0.333333333333333 0.666666666666667 0 1 0 1 0 1 0 1 0 1 1 0 0 1 0 1 0 1 0.5 0.5 0 1 0 1 0.5 0.5 0 1 0.5 0.5 0.5 0.5 0 1 0 1 0 1 0.333333333333333 0.666666666666667</probabilities>
		</cpt>
	</nodes>
	<extensions>
		<genie version="1.0" app="GeNIe 4.0.2304.0 ACADEMIC" name="Network1">
			<node id="Classifier_Output">
				<name>Classifier Output</name>
				<interior color="e5f6f7" />
				<outline color="000080" />
				<font color="000000" name="Arial" size="8" />
				<position>1031 611 1107 658</position>
				<barchart active="true" width="167" height="360" />
			</node>
			<node id="Ground_Truth">
				<name>Ground Truth</name>
				<interior color="e5f6f7" />
				<outline color="000080" />
				<font color="000000" name="Arial" size="8" />
				<position>415 737 491 784</position>
				<barchart active="true" width="167" height="108" />
			</node>
			<node id="RS1_1">
				<name>Safety Requirement 1.1</name>
				<interior color="e5f6f7" />
				<outline color="000080" />
				<font color="000000" name="Arial" size="8" />
				<position>430 122 476 150</position>
				<barchart active="true" width="167" height="72" />
			</node>
			<node id="RS1_2">
				<name>Safety Requirement 1.2</name>
				<interior color="e5f6f7" />
				<outline color="000080" />
				<font color="000000" name="Arial" size="8" />
				<position>635 122 681 150</position>
				<barchart active="true" width="167" height="72" />
			</node>
			<node id="RS1_3">
				<name>Safety Requirement 1.3</name>
				<interior color="e5f6f7" />
				<outline color="000080" />
				<font color="000000" name="Arial" size="8" />
				<position>837 122 883 150</position>
				<barchart active="true" width="167" height="72" />
			</node>
			<node id="Safety">
				<name>Overall Safety</name>
				<interior color="e5f6f7" />
				<outline color="000080" />
				<font color="000000" name="Arial" size="8" />
				<position>1046 122 1092 150</position>
				<barchart active="true" width="167" height="72" />
			</node>
		</genie>
	</extensions>
</smile>
