{"max_depth": 3, "n_trees": 3, "n_features": 3, "n_classes": 2, "trees": [[{"feature": [1, 2, 1, -2, -2, 1, -2, -2, 1, 1, -2, -2, 1, -2, -2], "threshold": [17.139992713928223, 1.0462500154972076, 9.762231349945068, -2.0, -2.0, 10.154999732971191, -2.0, -2.0, 22.891221046447754, 20.900866508483887, -2.0, -2.0, 22.892234802246094, -2.0, -2.0], "value": [0.29997381513485205, 0.31802997858672377, 0.31625192304642274, 0.32589101132886794, 0.3031898998954131, 0.32069769655434993, 0.327059105622827, 0.3113346273748603, 0.2715633423180593, 0.2840559721863058, 0.28864893336844877, 0.2753514682638715, 0.25796666353941894, 0.0, 0.25813618725747906], "children_left": [1, 2, 3, -1, -1, 6, -1, -1, 9, 10, -1, -1, 13, -1, -1], "children_right": [8, 5, 4, -1, -1, 7, -1, -1, 12, 11, -1, -1, 14, -1, -1], "parent": [-1, 0, 1, 2, 2, 1, 5, 5, 0, 8, 9, 9, 8, 12, 12], "depth": [0, 1, 2, 3, 3, 2, 3, 3, 1, 2, 3, 3, 2, 3, 3], "iLeaf": [3, 4, 6, 7, 10, 11, 13, 14]}], [{"feature": [1, 0, 0, -2, -2, 2, -2, -2, 2, 0, -2, -2, 0, -2, -2], "threshold": [17.14338493347168, 107.46329116821289, 28.834394454956055, -2.0, -2.0, 1.0462500154972076, -2.0, -2.0, 0.8549999892711639, 490.7203674316406, -2.0, -2.0, 308.1386260986328, -2.0, -2.0], "value": [0.2999563585580868, 0.3181745108608282, 0.12248062015503876, 0.028785261945883708, 0.16248770894788594, 0.32954113385763745, 0.328049494189449, 0.33176370929566235, 0.27081442488049856, 0.2558471299320494, 0.04543429844097996, 0.3270525575319064, 0.28091510222695143, 0.03154050464807437, 0.32582892337130387], "children_left": [1, 2, 3, -1, -1, 6, -1, -1, 9, 10, -1, -1, 13, -1, -1], "children_right": [8, 5, 4, -1, -1, 7, -1, -1, 12, 11, -1, -1, 14, -1, -1], "parent": [-1, 0, 1, 2, 2, 1, 5, 5, 0, 8, 9, 9, 8, 12, 12], "depth": [0, 1, 2, 3, 3, 2, 3, 3, 1, 2, 3, 3, 2, 3, 3], "iLeaf": [3, 4, 6, 7, 10, 11, 13, 14]}], [{"feature": [0, 0, 0, -2, -2, 1, -2, -2, 0, 2, -2, -2, 1, -2, -2], "threshold": [280.80690002441406, 98.49907684326172, 28.83973217010498, -2.0, -2.0, 15.709657669067383, -2.0, -2.0, 468.9273681640625, 1.0462500154972076, -2.0, -2.0, 25.557065963745117, -2.0, -2.0], "value": [0.2996130458817026, 0.14451733074182052, 0.06779077770130763, 0.020474137931034482, 0.08998988877654196, 0.18638127425209663, 0.30691739422431163, 0.033503691084611015, 0.3256409733689411, 0.2763198709597369, 0.25468622656886714, 0.31001110582262414, 0.33170787545787545, 0.332936919612358, 0.32002885308968504], "children_left": [1, 2, 3, -1, -1, 6, -1, -1, 9, 10, -1, -1, 13, -1, -1], "children_right": [8, 5, 4, -1, -1, 7, -1, -1, 12, 11, -1, -1, 14, -1, -1], "parent": [-1, 0, 1, 2, 2, 1, 5, 5, 0, 8, 9, 9, 8, 12, 12], "depth": [0, 1, 2, 3, 3, 2, 3, 3, 1, 2, 3, 3, 2, 3, 3], "iLeaf": [3, 4, 6, 7, 10, 11, 13, 14]}]], "init_predict": [0, 0], "norm": 1, "Config": {"Backend": "vhdl", "ProjectName": "my-prj", "OutputDir": "prj_LUTs - depth = 3", "Precision": "ap_fixed<19,12>", "XilinxPart": "xc7s100", "ClockPeriod": "5"}}