{"max_depth": 4, "n_trees": 3, "n_features": 3, "n_classes": 2, "trees": [[{"feature": [0, 2, 0, 0, -2, -2, 2, -2, -2, 1, 2, -2, -2, 2, -2, -2, 1, 1, 2, -2, -2, 1, -2, -2, 1, 2, -2, -2, 2, -2, -2], "threshold": [269.2203826904297, 1.0462500154972076, 128.1633529663086, 28.668798446655273, -2.0, -2.0, 0.8549999892711639, -2.0, -2.0, 13.839631080627441, 1.2787500023841858, -2.0, -2.0, 1.2787500023841858, -2.0, -2.0, 23.745737075805664, 21.160667419433594, 0.7149999737739563, -2.0, -2.0, 21.161611557006836, -2.0, -2.0, 26.521879196166992, 1.0462500154972076, -2.0, -2.0, 1.0462500154972076, -2.0, -2.0], "value": [0.3004393238485933, 0.14254812892061433, 0.13239436619718312, 0.08045454545454546, 0.02247191011235955, 0.09903961584633854, 0.17971014492753623, 0.1735762144053601, 0.191575536654516, 0.15771305285868392, 0.2688888888888889, 0.26474442988204455, 0.27317955676164635, 0.05283018867924528, 0.04895960832313342, 0.056921086675291076, 0.32497646900631977, 0.33078965624476714, 0.3324395105426398, 0.3301329066097702, 0.33302007115526616, 0.3171470805617147, 0.0, 0.317287784679089, 0.29372937293729373, 0.29946743138058174, 0.2855840455840456, 0.3202180207801056, 0.28405296488198045, 0.27098321342925663, 0.3057598039215686], "children_left": [1, 2, 3, 4, -1, -1, 7, -1, -1, 10, 11, -1, -1, 14, -1, -1, 17, 18, 19, -1, -1, 22, -1, -1, 25, 26, -1, -1, 29, -1, -1], "children_right": [16, 9, 6, 5, -1, -1, 8, -1, -1, 13, 12, -1, -1, 15, -1, -1, 24, 21, 20, -1, -1, 23, -1, -1, 28, 27, -1, -1, 30, -1, -1], "parent": [-1, 0, 1, 2, 3, 3, 2, 6, 6, 1, 9, 10, 10, 9, 13, 13, 0, 16, 17, 18, 18, 17, 21, 21, 16, 24, 25, 25, 24, 28, 28], "depth": [0, 1, 2, 3, 4, 4, 3, 4, 4, 2, 3, 4, 4, 3, 4, 4, 1, 2, 3, 4, 4, 3, 4, 4, 2, 3, 4, 4, 3, 4, 4], "iLeaf": [4, 5, 7, 8, 11, 12, 14, 15, 19, 20, 22, 23, 26, 27, 29, 30]}], [{"feature": [0, 2, 0, 1, -2, -2, 0, -2, -2, 0, 0, -2, -2, 2, -2, -2, 1, 1, 1, -2, -2, 0, -2, -2, 2, 2, -2, -2, 1, -2, -2], "threshold": [269.21783447265625, 1.0462500154972076, 98.53035736083984, 7.1912291049957275, -2.0, -2.0, 190.51709747314453, -2.0, -2.0, 80.28149795532227, 49.913169860839844, -2.0, -2.0, 1.2787500023841858, -2.0, -2.0, 23.664610862731934, 21.035783767700195, 18.90168571472168, -2.0, -2.0, 369.47142028808594, -2.0, -2.0, 1.0462500154972076, 0.8549999892711639, -2.0, -2.0, 27.48303985595703, -2.0, -2.0], "value": [0.30052660673241977, 0.14091224419007978, 0.1290948275862069, 0.06396548489964358, 0.2278839348903043, 0.004849412965798877, 0.16951915240423798, 0.1500208073241781, 0.1942902458366376, 0.15890201224846895, 0.06877729257641922, 0.03939393939393939, 0.11293260473588342, 0.1976235146966854, 0.18408941485864563, 0.20989862850327967, 0.3252683294016439, 0.3309627351577329, 0.3326206778346098, 0.33319313846246285, 0.32741994177583694, 0.31784439685938615, 0.1440781440781441, 0.3286331589720264, 0.2955533266466065, 0.28336113427856546, 0.2773232641074051, 0.29522043675319326, 0.3139412997903564, 0.3172660035705177, 0.29858657243816256], "children_left": [1, 2, 3, 4, -1, -1, 7, -1, -1, 10, 11, -1, -1, 14, -1, -1, 17, 18, 19, -1, -1, 22, -1, -1, 25, 26, -1, -1, 29, -1, -1], "children_right": [16, 9, 6, 5, -1, -1, 8, -1, -1, 13, 12, -1, -1, 15, -1, -1, 24, 21, 20, -1, -1, 23, -1, -1, 28, 27, -1, -1, 30, -1, -1], "parent": [-1, 0, 1, 2, 3, 3, 2, 6, 6, 1, 9, 10, 10, 9, 13, 13, 0, 16, 17, 18, 18, 17, 21, 21, 16, 24, 25, 25, 24, 28, 28], "depth": [0, 1, 2, 3, 4, 4, 3, 4, 4, 2, 3, 4, 4, 3, 4, 4, 1, 2, 3, 4, 4, 3, 4, 4, 2, 3, 4, 4, 3, 4, 4], "iLeaf": [4, 5, 7, 8, 11, 12, 14, 15, 19, 20, 22, 23, 26, 27, 29, 30]}], [{"feature": [1, 1, 2, 0, -2, -2, 1, -2, -2, 1, 0, -2, -2, 2, -2, -2, 0, 0, 1, -2, -2, 0, -2, -2, 0, 2, -2, -2, 0, -2, -2], "threshold": [17.204044342041016, 11.279704093933105, 0.8549999892711639, 80.65147399902344, -2.0, -2.0, 6.461334466934204, -2.0, -2.0, 13.851422786712646, 137.27594757080078, -2.0, -2.0, 0.7149999737739563, -2.0, -2.0, 348.90142822265625, 269.6325225830078, 20.15373992919922, -2.0, -2.0, 309.18556213378906, -2.0, -2.0, 518.6393127441406, 0.8549999892711639, -2.0, -2.0, 602.4718933105469, -2.0, -2.0], "value": [0.29956649501032845, 0.31794334673234065, 0.3251509922346851, 0.32385688033726084, 0.12991452991452992, 0.33239288266937517, 0.3260104817287673, 0.329544050413938, 0.32111034955448936, 0.30418793567155167, 0.30957683741648107, 0.025641025641025644, 0.33093860174283246, 0.2998914866331262, 0.28950760505284867, 0.3023482769136932, 0.2700031877590054, 0.03376601340459829, 0.007234462347911871, 0.02455264253017062, 0.0010416666666666667, 0.12462462462462463, 0.10509803921568628, 0.14254859611231102, 0.3214827139951932, 0.2371020856201976, 0.16147186147186146, 0.29245880861850443, 0.3309682461335966, 0.2994764397905759, 0.33293996809370835], "children_left": [1, 2, 3, 4, -1, -1, 7, -1, -1, 10, 11, -1, -1, 14, -1, -1, 17, 18, 19, -1, -1, 22, -1, -1, 25, 26, -1, -1, 29, -1, -1], "children_right": [16, 9, 6, 5, -1, -1, 8, -1, -1, 13, 12, -1, -1, 15, -1, -1, 24, 21, 20, -1, -1, 23, -1, -1, 28, 27, -1, -1, 30, -1, -1], "parent": [-1, 0, 1, 2, 3, 3, 2, 6, 6, 1, 9, 10, 10, 9, 13, 13, 0, 16, 17, 18, 18, 17, 21, 21, 16, 24, 25, 25, 24, 28, 28], "depth": [0, 1, 2, 3, 4, 4, 3, 4, 4, 2, 3, 4, 4, 3, 4, 4, 1, 2, 3, 4, 4, 3, 4, 4, 2, 3, 4, 4, 3, 4, 4], "iLeaf": [4, 5, 7, 8, 11, 12, 14, 15, 19, 20, 22, 23, 26, 27, 29, 30]}]], "init_predict": [0, 0], "norm": 1, "Config": {"Backend": "vhdl", "ProjectName": "my-prj", "OutputDir": "prj_LUTs - depth = 4", "Precision": "ap_fixed<19,12>", "XilinxPart": "xc7s100", "ClockPeriod": "5"}}